<?xml version="1.0"?>
<opencv_storage>
<stage2>
  <maxWeakCount>8</maxWeakCount>
  <stageThreshold>3.0729791522026062e-01</stageThreshold>
  <weakClassifiers>
    <_>
      <internalNodes>
        0 -1 62206 -6.3294512219727039e-03</internalNodes>
      <leafValues>
        9.3939393758773804e-01 -4.6268656849861145e-01</leafValues></_>
    <_>
      <internalNodes>
        0 -1 71252 5.1683844067156315e-03</internalNodes>
      <leafValues>
        -5.2510273456573486e-01 9.0728574991226196e-01</leafValues></_>
    <_>
      <internalNodes>
        0 -1 118529 2.1751640815637074e-05</internalNodes>
      <leafValues>
        4.6351468563079834e-01 -1.</leafValues></_>
    <_>
      <internalNodes>
        0 -1 104866 -5.8283312246203423e-03</internalNodes>
      <leafValues>
        9.7014111280441284e-01 -4.8726156353950500e-01</leafValues></_>
    <_>
      <internalNodes>
        0 -1 104374 -2.5469593703746796e-02</internalNodes>
      <leafValues>
        9.4584983587265015e-01 -4.5952814817428589e-01</leafValues></_>
    <_>
      <internalNodes>
        0 -1 2 -2.9579125111922622e-05</internalNodes>
      <leafValues>
        -9.0672183036804199e-01 5.4357582330703735e-01</leafValues></_>
    <_>
      <internalNodes>
        0 -1 0 3.0115694244159386e-05</internalNodes>
      <leafValues>
        3.9484935998916626e-01 -1.</leafValues></_>
    <_>
      <internalNodes>
        0 -1 80103 -3.4846454858779907e-02</internalNodes>
      <leafValues>
        9.8324775695800781e-01 -5.4753178358078003e-01</leafValues></_></weakClassifiers></stage2>
</opencv_storage>
